digraph Tree {
node [shape=box] ;
0 [label="Sex <= 0.5\ngini = 0.4688\nsamples = 712\nvalue = [445, 267]"] ;
1 [label="Pclass <= 2.5\ngini = 0.3898\nsamples = 245\nvalue = [65, 180]"] ;
0 -> 1 [labeldistance=2.5, labelangle=45, headlabel="True"] ;
2 [label="Fare <= 28.8563\ngini = 0.1115\nsamples = 135\nvalue = [8, 127]"] ;
1 -> 2 ;
3 [label="gini = 0.1944\nsamples = 55\nvalue = [6, 49]"] ;
2 -> 3 ;
4 [label="gini = 0.0487\nsamples = 80\nvalue = [2, 78]"] ;
2 -> 4 ;
5 [label="Fare <= 23.35\ngini = 0.4993\nsamples = 110\nvalue = [57, 53]"] ;
1 -> 5 ;
6 [label="gini = 0.4851\nsamples = 87\nvalue = [36, 51]"] ;
5 -> 6 ;
7 [label="gini = 0.1588\nsamples = 23\nvalue = [21, 2]"] ;
5 -> 7 ;
8 [label="Age <= 6.5\ngini = 0.3032\nsamples = 467\nvalue = [380, 87]"] ;
0 -> 8 [labeldistance=2.5, labelangle=-45, headlabel="False"] ;
9 [label="FamSi <= 3.5\ngini = 0.42\nsamples = 20\nvalue = [6, 14]"] ;
8 -> 9 ;
10 [label="gini = 0.0\nsamples = 13\nvalue = [0, 13]"] ;
9 -> 10 ;
11 [label="gini = 0.2449\nsamples = 7\nvalue = [6, 1]"] ;
9 -> 11 ;
12 [label="Pclass <= 1.5\ngini = 0.2733\nsamples = 447\nvalue = [374, 73]"] ;
8 -> 12 ;
13 [label="gini = 0.4527\nsamples = 104\nvalue = [68, 36]"] ;
12 -> 13 ;
14 [label="gini = 0.1925\nsamples = 343\nvalue = [306, 37]"] ;
12 -> 14 ;
}