digraph Tree {
node [shape=box] ;
0 [label="Sex <= 0.5\ngini = 0.4682\nsamples = 623\nvalue = [390, 233]"] ;
1 [label="Age <= 6.5\ngini = 0.2935\nsamples = 403\nvalue = [331, 72]"] ;
0 -> 1 [labeldistance=2.5, labelangle=45, headlabel="True"] ;
2 [label="SibSp <= 2.5\ngini = 0.4297\nsamples = 16\nvalue = [5, 11]"] ;
1 -> 2 ;
3 [label="gini = 0.0\nsamples = 10\nvalue = [0, 10]"] ;
2 -> 3 ;
4 [label="gini = 0.2778\nsamples = 6\nvalue = [5, 1]"] ;
2 -> 4 ;
5 [label="Fare <= 26.2687\ngini = 0.2656\nsamples = 387\nvalue = [326, 61]"] ;
1 -> 5 ;
6 [label="Age <= 20.5\ngini = 0.169\nsamples = 279\nvalue = [253, 26]"] ;
5 -> 6 ;
7 [label="Fare <= 7.9104\ngini = 0.2832\nsamples = 41\nvalue = [34, 7]"] ;
6 -> 7 ;
8 [label="Fare <= 7.4396\ngini = 0.1172\nsamples = 16\nvalue = [15, 1]"] ;
7 -> 8 ;
9 [label="gini = 0.2778\nsamples = 6\nvalue = [5, 1]"] ;
8 -> 9 ;
10 [label="gini = 0.0\nsamples = 10\nvalue = [10, 0]"] ;
8 -> 10 ;
11 [label="Fare <= 8.1042\ngini = 0.3648\nsamples = 25\nvalue = [19, 6]"] ;
7 -> 11 ;
12 [label="gini = 0.32\nsamples = 5\nvalue = [1, 4]"] ;
11 -> 12 ;
13 [label="gini = 0.18\nsamples = 20\nvalue = [18, 2]"] ;
11 -> 13 ;
14 [label="Age <= 23.75\ngini = 0.1469\nsamples = 238\nvalue = [219, 19]"] ;
6 -> 14 ;
15 [label="gini = 0.0\nsamples = 26\nvalue = [26, 0]"] ;
14 -> 15 ;
16 [label="Embarked_Q <= 0.5\ngini = 0.1632\nsamples = 212\nvalue = [193, 19]"] ;
14 -> 16 ;
17 [label="gini = 0.1808\nsamples = 189\nvalue = [170, 19]"] ;
16 -> 17 ;
18 [label="gini = 0.0\nsamples = 23\nvalue = [23, 0]"] ;
16 -> 18 ;
19 [label="SibSp <= 1.5\ngini = 0.4381\nsamples = 108\nvalue = [73, 35]"] ;
5 -> 19 ;
20 [label="Age <= 51.5\ngini = 0.4674\nsamples = 94\nvalue = [59, 35]"] ;
19 -> 20 ;
21 [label="Fare <= 27.1354\ngini = 0.4865\nsamples = 79\nvalue = [46, 33]"] ;
20 -> 21 ;
22 [label="gini = 0.2188\nsamples = 8\nvalue = [1, 7]"] ;
21 -> 22 ;
23 [label="gini = 0.4642\nsamples = 71\nvalue = [45, 26]"] ;
21 -> 23 ;
24 [label="Embarked_S <= 0.5\ngini = 0.2311\nsamples = 15\nvalue = [13, 2]"] ;
20 -> 24 ;
25 [label="gini = 0.48\nsamples = 5\nvalue = [3, 2]"] ;
24 -> 25 ;
26 [label="gini = 0.0\nsamples = 10\nvalue = [10, 0]"] ;
24 -> 26 ;
27 [label="gini = 0.0\nsamples = 14\nvalue = [14, 0]"] ;
19 -> 27 ;
28 [label="Pclass <= 2.5\ngini = 0.3925\nsamples = 220\nvalue = [59, 161]"] ;
0 -> 28 [labeldistance=2.5, labelangle=-45, headlabel="False"] ;
29 [label="Fare <= 149.0354\ngini = 0.109\nsamples = 121\nvalue = [7, 114]"] ;
28 -> 29 ;
30 [label="Fare <= 28.8563\ngini = 0.0875\nsamples = 109\nvalue = [5, 104]"] ;
29 -> 30 ;
31 [label="Age <= 37.0\ngini = 0.18\nsamples = 50\nvalue = [5, 45]"] ;
30 -> 31 ;
32 [label="Age <= 26.5\ngini = 0.1049\nsamples = 36\nvalue = [2, 34]"] ;
31 -> 32 ;
33 [label="gini = 0.2076\nsamples = 17\nvalue = [2, 15]"] ;
32 -> 33 ;
34 [label="gini = 0.0\nsamples = 19\nvalue = [0, 19]"] ;
32 -> 34 ;
35 [label="Title_Miss <= 0.5\ngini = 0.3367\nsamples = 14\nvalue = [3, 11]"] ;
31 -> 35 ;
36 [label="gini = 0.1975\nsamples = 9\nvalue = [1, 8]"] ;
35 -> 36 ;
37 [label="gini = 0.48\nsamples = 5\nvalue = [2, 3]"] ;
35 -> 37 ;
38 [label="gini = 0.0\nsamples = 59\nvalue = [0, 59]"] ;
30 -> 38 ;
39 [label="Fare <= 219.4312\ngini = 0.2778\nsamples = 12\nvalue = [2, 10]"] ;
29 -> 39 ;
40 [label="gini = 0.48\nsamples = 5\nvalue = [2, 3]"] ;
39 -> 40 ;
41 [label="gini = 0.0\nsamples = 7\nvalue = [0, 7]"] ;
39 -> 41 ;
42 [label="Fare <= 23.35\ngini = 0.4987\nsamples = 99\nvalue = [52, 47]"] ;
28 -> 42 ;
43 [label="Age <= 36.5\ngini = 0.4839\nsamples = 78\nvalue = [32, 46]"] ;
42 -> 43 ;
44 [label="Age <= 17.5\ngini = 0.4661\nsamples = 73\nvalue = [27, 46]"] ;
43 -> 44 ;
45 [label="Fare <= 9.5292\ngini = 0.1653\nsamples = 11\nvalue = [1, 10]"] ;
44 -> 45 ;
46 [label="gini = 0.32\nsamples = 5\nvalue = [1, 4]"] ;
45 -> 46 ;
47 [label="gini = 0.0\nsamples = 6\nvalue = [0, 6]"] ;
45 -> 47 ;
48 [label="Age <= 21.5\ngini = 0.487\nsamples = 62\nvalue = [26, 36]"] ;
44 -> 48 ;
49 [label="gini = 0.4444\nsamples = 9\nvalue = [6, 3]"] ;
48 -> 49 ;
50 [label="gini = 0.4699\nsamples = 53\nvalue = [20, 33]"] ;
48 -> 50 ;
51 [label="gini = 0.0\nsamples = 5\nvalue = [5, 0]"] ;
43 -> 51 ;
52 [label="Age <= 9.5\ngini = 0.0907\nsamples = 21\nvalue = [20, 1]"] ;
42 -> 52 ;
53 [label="gini = 0.2449\nsamples = 7\nvalue = [6, 1]"] ;
52 -> 53 ;
54 [label="gini = 0.0\nsamples = 14\nvalue = [14, 0]"] ;
52 -> 54 ;
}